Weight 1 after training:
Rows: 35, Columns: 32
{{-2.8905707361071835, -1.3450501215360664, 3.697663192730868, -4.719327364876569, -4.022726668585707, -0.5192946627487564, 3.147553073144325, 3.8041453132302396, 2.124800632516233, 3.573633090226331, 2.869890157371367, 3.5304944018783053, 2.718959741933678, -1.434098584803282, -3.1485389094026517, -2.015097426836599, 0.5240066457121391, 0.7908745502439258, -2.1817326584832903, -1.292732701076859, -0.10575775590848328, -3.310782936939724, 3.754412141522241, 3.796980103799398, -0.6025506110392669, -3.2638228062292134, 0.031921241958130495, 0.48055610907097024, 2.671190767309704, 0.7063245328680431, 2.821107313337777, -1.5809766867912376} 
{5.822451914660529, -1.5025683715142455, 0.4643065261972749, 2.6861700595074467, -0.8973219310087779, -4.422422229324765, -3.7343414024918697, 3.7549002943458096, 0.36078945919157046, 2.6480138080568407, -2.5007135830960885, -1.245687056826923, 2.617092666029236, -0.822832448329178, 1.8150452044294607, -1.5469990931684543, 3.74539234941234, -0.35649114636190626, 1.0201252739068714, 0.7375557197277648, -4.97336519959954, 2.3357261869984036, -1.849751344317285, 2.3884355673712436, -0.7856428766518861, 3.463277342777103, 3.488981424885306, 0.5985031152000957, 2.404801189544356, 0.6392409219973058, -2.954011001342298, -0.7659565001786824} 
{1.0129855498655849, -0.29168385596758956, -0.3252185404274929, -2.2775184047318344, -0.804915129758209, -1.4622960357042565, -1.1224669391614366, 0.11601981522538864, -3.0825632990593195, 2.5458589038323773, -1.0906558999499618, 5.08288344941262, -2.701404370395467, -0.16697115888372172, -0.17895508736852778, 3.3307892849571985, -1.0272850723157236, -2.0213135399526854, 0.26244015826797656, -1.1736333828879153, -4.244518039357343, -2.154951957131552, -1.5361412456223185, -0.6410142708386923, -2.4731936434965585, -1.6760970702928428, 3.6256990949199706, -0.8201450082963035, -3.354898029438136, 2.681675005981847, 2.7565515080304674, -0.9667674598745118} 
{3.7999071334449157, 2.6440207858439733, 4.827559471055213, 2.221426754442843, -1.7463394745875347, 2.4996063166155356, -0.11641127813235806, -1.0162308067991404, -1.3964641616115436, 1.6982885447082416, 1.2293868578640657, 3.1613159744560093, 2.4165426143113313, -1.315794555345803, -1.671523131020435, 1.8882598750592883, 1.674039898422209, -3.8638939354925053, -0.7853336980560224, -3.951760955067106, -2.6001857414881293, -0.6882260146905815, 1.0549869448055245, 2.4356184278489286, 0.3055737279944764, 1.0769089769149587, -3.05801627423207, -3.5188484267708606, -1.7168276563671963, -0.692298966893684, -0.5952717900220881, -3.2351682711755423}
{-0.838500000132576, -2.4063533291077612, 3.873968575774923, -1.1691779560287299, 2.2668486031908244, 1.67599347377475, 0.6717696007586932, -0.6146206507416037, -0.559814107177908, 1.3494935712830625, 2.9359055906206595, 1.3702202961566472, 0.9193802480596751, -2.5453746521432254, 0.5330157057489082, 1.5348509584253935, -2.5176279928500715, -3.384895592827819, 0.3226970843551565, -3.3619831703369454, 4.4959105927022245, -2.285292129528826, -3.735622042268962, 4.203677572420589, 0.27621107897354785, -1.217193647718193, 0.8702912863651401, 3.0285288283910723, -1.32141484737512, -3.4869796025244666, -1.7758411076547134, 1.1799698769813103} 
{-1.4690126639958516, 1.9643980766154503, 2.6627753018233427, 0.3049509880166582, 1.5046348737864683, 0.1911260373984225, -2.7688489930273494, -0.0723662226533555, -0.5239659383528571, 1.0724246538102553, 4.780965110324334, -0.8584444836363062, -1.5948376995832827, -1.5024295741410127, -1.3609686137502728, -0.4963373672551157, 3.3350863384655605, 1.7290359958625383, 2.72979217169962, 3.289256758875701, -1.9949080784652597, -2.909179469946794, -0.6312639247908134, 2.564673966160726, 0.46175901481384485, 0.6994089136033637, 3.332663259704813, 1.5711744128223963, 2.0019955140517665, 0.8721764595112428, -3.5386210959028426, -3.5448655514865535} 
{2.3483879247834536, 3.94054521960901, -3.2478297591833853, 3.5958762630825323, 3.3539457796156915, 0.8175767669792381, -2.2608108646722025, -2.5123284062910134, -3.2115310125899663, -1.3286311608261772, -1.7929361013326526, -2.3372246023539116, -4.5793573872651905, 3.6914349797052033, 3.162439783276018, 1.2480217003689154, -2.507882028857067, -3.1425959421029175, -2.2717380106666867, -1.561398478757445, -1.0195324953876204, -2.2442837747130064, 2.559483961983298, 0.5808533746376764, -3.614860026177121, -0.3205146844886922, 3.508399447380338, 0.6533330056069309, -1.1813883567066725, -0.591157031953039, -0.1469554084047104, -2.4587503355669615} 
{-2.10751903518039, 1.5205237090603019, -1.3084397997537816, -0.8061448053067659, -2.431708634823721, 2.0381812845716323, 0.5843658494267511, 0.8877896673220576, -3.1686620794518157, 3.451516946150909, 1.7431170628387913, 3.997498964824411, 1.1960537202756942, -0.6268242798759203, 1.3810232362740527, -1.4739827841807962, -1.7254943524404043, 0.8169411510251953, 1.536154683514591, 0.44869043844394785, 2.086000641111756, -1.0494475160553627, 3.019722175909121, -1.8538801240945877, -2.1466989731621755, 3.862501421857313, 2.654263932256281, 1.4853719818356774, -2.269399289749411, -0.4489291757883665, 3.788221808012276, 0.6336565571150936} 
{3.0396260292358823, 0.46323397151282697, -1.219170918968494, -3.5459001282367764, 0.12232841790423646, 1.1434512999942956, -0.27788501623779727, 2.806094999074063, -0.228439204237142, -2.5692322289787883, -2.4412496180147247, -2.831522314134629, -3.1386046574895086, -2.890664641080972, -1.4027378597024325, -2.670849623261768, 0.337111267214434, -0.9846436917063826, -3.4961329526611933, 2.1684492387614096, 1.5155801466249972, 1.9442125547345739, -1.8663014196694114, -0.38285769168720596, -0.8206825080571856, 1.7550297168319642, 3.9587058400951873, -4.868325489837183, 3.463004449093, -2.6714021049884935, -1.6255841498375427, 1.089703256826144} 
{1.5804287384364306, 2.053787682917105, -1.4582791137469175, -2.0688544411392074, 1.9794552680447228, 1.9695372007673553, -0.2791451804845022, 2.201793475635672, 1.7716565561168216, -2.5375548448240104, 0.24787790097985057, -3.106340591223397, -0.8359525282531457, -0.0559978788397909, 2.088211837159175, 0.8187193133395408, 2.391914342757698, 3.9331299997261087, 2.5630328596121807, -1.1023629410347386, 2.7890283877831457, 0.6815549253763281, 0.21561447763051478, 0.05210116486232337, 0.702349144331792, 1.2526755838391497, -0.7707142685068241, -2.947096285669593, 0.695002337080967, -0.6830950386205382, 0.23394550325255234, 0.6769898712860482}
{-0.7830900309648628, 0.9303540527201444, 2.0244423973746346, -2.3754621039213415, 2.6304749909485854, -0.6249927777436426, -0.05985845942811565, 0.5708852881481098, 2.2091082865511953, 2.843963170039821, 5.306776121555233, -1.6280074873422137, -3.9031184684904088, -3.1845746346771384, -0.15677748176263756, 1.1703005381725053, -3.0506628421207886, -0.16509199189458765, 2.5632331319472006, 3.2718959532645564, 2.9761885919930666, -2.37058487543847, 0.6113513734218442, 0.8466048250463187, -2.5521613965261802, -3.2108964914435973, 0.6578898985072321, -1.686367457320356, -2.104080986212571, -0.08980593529404161, -1.3277047447212436, -2.7403460930676413}
-3.8397772777982686, -1.8151857315679696, -1.6313386077635463, -1.481446959464062, -2.8584251689715434, 1.4507496426504103, -0.04110719657437888, -3.17044452004907, -2.621060839501659, 3.8392483663120873, 2.671682142833495, 1.1860258827277044, -0.16177550139209002, -2.6156790743551612, 0.7722394244550623, 0.939817966941302, 1.1731612970531349, 2.4531805919596796, 0.3730201908323845, -3.5073457330295974, -1.0817533345434656, 2.752350074950007, -3.577308404280802, 3.240473789788883, -2.647277717934137, -1.7258589837061362, 2.9245854239445492, 2.984160965096412, 1.0062429382816134, 2.148829512840909, 1.8093356418020854, 0.7297054294405837} 
{-3.278801876008967, -2.0343014665896395, 1.956836115078888, 0.7068665452712398, -0.5559838024203028, -0.8359161135986352, -2.640237542193638, -2.4941297287785256, -0.625172260775919, -2.649167435874412, -1.6085901214866878, -1.9885716697420968, 3.3325687508535338, -1.973878816728398, 0.27114229339472234, 0.7442709249784893, 2.1394317706308854, 3.5280218523968974, 1.8434563701173095, -0.8398489843250365, -0.030123242741056683, -0.06080764757513648, 2.420697525538792, 3.62518081022864, 4.2350800293926465, -0.7457455056428084, 1.1516646337045215, 1.2377058962213812, 2.7985686174143667, 1.2008812206729913, -4.680227145035794, 1.550489739899603} 
{3.1550434603583373, 3.5865669735113253, 3.261963475637268, -3.368438233996436, 3.536909783965479, 0.8336057455625043, -1.9406166045974045, 1.3503045024085016, -3.3898376155354497, 2.041813034180795, -1.646020364966278, -1.0582525293404763, -3.2851570142093576, 3.6661670979171266, 1.7470397099234263, -0.5511619932901627, 1.5040133188476887, -3.0915580309753503, 3.637434202544389, 3.963856624918497, -2.4143795695576773, 3.5595371599502488, 1.0139169752655652, -0.16145057826249937, 1.721336181001289, 0.25723951539234713, 0.3211469238334938, -1.7895209791889886, 2.161830496942855, 3.8449629461058366, 1.708031483423242, 1.6252724124063176} 
{4.6501507456273785, 3.3325542235964503, 3.692985140572914, 5.264716449931195, -1.488619063952983, -3.192528904953055, -0.8291931230589452, 2.0359010358978606, -4.289293679286461, -4.161924519499047, 3.48616159322123, -1.4127794696218776, 3.37481783565721, -3.0276697823417025, -4.2730892165320284, -1.6806570811258001, -2.0948317035035657, 0.4410277126700541, -3.1156321256338466, 4.00337868841286, -3.893649344200038, 4.3767071569343265, 0.6263435040997034, -0.6002877708122701, -1.3979442613686757, -4.305832901644315, 2.9847020604115686, -0.8374625394500583, 0.8828517477064102, -4.364977656165948, 2.9495596038164575, -2.7362413610196863} 
{3.4883676468481926, -1.5170880871004584, -1.9590016840401068, 2.4973890491806214, 3.669552631533321, -2.4904585901462375, -2.4912745437602477, 1.8488990578148439, -0.5921027406659015, 0.9074231912280324, 0.939334573151034 3.0127807095298316 0.26514579647126774 -1.2655749170601664 -3.851988798313772 -2.938696889959499 1.3328554071317986 0.19489843609934054 -0.2804234149885908 0.4768178277519494 1.6541021132755758, 1.0230234968107084, -3.5245696484465654, 0.2234398000495598, -0.033376924732759335, -2.0439952248201245, -2.212174687803115, -1.5897043408753726, -3.4856752556957296, -4.515028391545166, 0.6540473562463117, -3.016940390710815} 
{-2.2211884172006306, -1.7335905636105085, 2.4799788488835897, -4.0555506457415715, -2.093041944490604, -1.9439783236115724, 0.8620151631816967, 0.4324251427388914, 1.7241436249633817, -2.6001791221776225, 3.563681410732356, -2.471472481804499, 1.0044171274905538, 0.7824735944407927, -4.567793079113939, -2.401712362873161, 2.3503336387688756, -0.903155361006579, -2.5078593172262837, 2.0168015473599716, 0.5257067094540259, -2.185774985992248, -1.0778445846210971, -2.7801399393949824, -3.9096994763507045, -2.2323804542916394, -0.20919350166644438, 0.21568770095558984, -2.7874116247810794, -2.577670934019689, 1.2290264935106883, -2.0221208893691665} 
{4.005027987907865, -0.7752813365713153, -0.2387628516807864, -2.8630411942440346, 2.593100454763322, -3.209594580182435, -0.6624715097825938, -3.0255804832212383, 1.0318460447354354, 1.5915258822108476, 4.594401848047548, 0.49193964576050947, -0.006531443833671697, -2.395369284440825, -4.252146251871741, -1.9173423205549363, 0.3613070111710495, -1.5531311287818048, 2.9538913030879983, 2.3886102151537183, 2.5297216931863606, 4.259661384747097, 4.445377274929244, 0.6616222448483099, -0.2923676811665791, -2.5648466566067167, 0.7575834504453761, -4.497848638793723, 3.142170744881099, 0.8342947963701066, -0.2078719986914443, -1.2111141816378423} 
{-1.332063373571205, 1.1429475750842688, 2.168281503233759, -3.499224976385443, 1.0618677923559432, -1.0264152262554422, -1.9778900010934557, -2.6504604560336196, -2.1102694112063975, 1.4060641478086298, -0.2721417439232471, -2.291451809864463, -3.721534571848995, 3.2836051753437396, -0.5513186649154961, 3.641123045980881, 2.4871495889913344, -2.052696131216581, 0.6983059962947208, -0.9254958203437331, -0.909734268045073, -0.6124419418543705, 2.0624591371153027, -0.056202892547614326, -0.5459196880762887, 1.4511297114079111, 4.170658276362691, -0.4655854788483912, -1.4928625739766612, -1.2676485702106277, -3.7359088184615366, -1.286404493156942} 
{-2.4364232470509077, 1.5197900967323585, 3.127159713346702, 3.1156678794204584, -2.989457662171321, -1.286291463260531, 3.722202748401709, -0.2521769726675988, -0.4508817733530991, -3.3202316022112086, -1.9161981033012887, -1.4182937950871872, 3.359837955726779, -2.3947307677092624, 1.4118694300139845, 1.0506361046138988, 4.436890961352211, 3.813395346885509, 0.5746491163538348, -2.9297571977902592, -1.3178495712942668, -1.1423471824679021, -0.37077007223458086, 2.1419417441869784, -0.6912159105120932, -1.0347852785052745, -0.3260706519384456, -4.171133653642538, -1.6893458871857598, -3.9824511327538885, -0.9480234212708003, -2.4147138965757504} 
{-3.0330908129159684, 3.4319887859783575, 1.6956883504841525, 0.3252419675568617, 3.001493762617435, 2.8216131216468248, -0.9424630811221476, 0.8192159700233778, -0.21522786424710355, 3.1263847783120813, 1.9370795743390845, 4.4933074639805115, 0.9912796766897254, 3.3675092359380834, -3.181110678891505, -1.2890638640420535, 3.004000907837252, 2.7790834759945935, 0.9349130488640662, -1.0790704075267439, -4.100385709088805, -1.9808608640989567, -3.4540697021862705, -1.5905588801712267, 0.022748243679941722, 4.566239300748678, 0.11916977030485111, 3.770387434680052, 0.9586848933764625, 2.05198220963807, -2.6228412894184623, 0.09362864815562208} 
{0.5138041268442735, 2.0833607381937895, 2.5880151920350523, -2.9058157983954342, -1.0809916829149473, 1.7572272502564865, 1.8909087929090422, -1.7329214368450234, 2.8127395630496417, -1.4955560376549464, 1.7817828263400608, 1.5671315784798723, -3.0432267929845795, 0.735334053735871, 2.317813023552782, -3.229493794112859, -2.058420305765424, 3.409768361089097, -2.131789760573965, 0.01720776029232454, -0.06383195924392988, 1.3894376402346085, 1.0848886846852854, 2.110796761918843, -2.102711616192078, 1.6254998982014712, -3.5016648008371947, 1.3734094980867064, -1.783784277187767, -0.25556339774452685, -1.3834413297690527, -0.9734126935248048,} 
{-2.4700398906285472, 0.4931938880239769, -1.4623744426512624, -2.597094780447328, -4.045959421765888, 0.9914010910854545, -4.7648922501323305, 1.6140678366717522, 4.47365215374021, -1.5320781595075306, 3.7695524806778398, -0.550035874315909, 2.086153774585975, -2.0831778066211197, 3.0349794307706817, -4.531753988981037, -2.4469934418225896, -2.5172058305007994, -2.631616028019308, -0.7195564060736306, 1.4079105560687373, -2.0477937734763096, -1.9650940974034046, -0.1079213924777478, 0.6288652599478685, 0.8039882068395577, -1.5832127745412934, -5.16166820234016, -1.1488761246097676, 0.48872720575321243, 3.067222935709469, -2.1332464683331227} 
{1.3668977569240612, 2.069216777898621, 0.17516860103394974, 3.881552260182377, -1.576604721920946, -3.286249424107512, 2.554862551758338, -0.6130582423926222, 1.782992378544404, 0.35485160702598156, -3.1664032466639425, -1.8139122512892676, -0.07748940305026562, 2.4036090539597734, -2.9124427040083423, -0.857196137740635, -3.3744876645149144, 2.322830255709005, -2.831248026721227, -0.3760256678950269, -1.3024529386580768, 1.9582643417808772, 2.8116874797181612, 4.027454829352214, -2.3739381717044847, 3.529057552539405, -0.009803067864575903, 1.1176407328210143, 1.6029289803266065, 1.1718435724966685, 3.3572373123967054, 0.9639939864903624} 
{-1.2647245365804436, -0.08291020265818697, 3.2122267793814743, -2.011981031894076, 1.9521969724132213, -0.8271599973694174, 1.1385587561331485, -3.054133268425548, 2.5727851327127436, 1.0287531068644489, 2.3992918155347214, -4.051265438047321, -1.4986226453447071, 1.970068739748722, 1.4149663169679036, -3.2242917652668672, -2.007512114467971, -1.1736312526029706, 1.0608340451282892, 1.8794568882782725, -2.196764168573929, 4.716320605502001, -1.5783877226871639, -2.760399642970795, -2.207643506767368, -2.028162441771503, 1.8532002985187, 1.7827316966314424, -4.349172592335275, -1.7575487767771152, 0.6611678051158986, -0.1598010427489081} 
{-1.3838641641494336, 1.2343235139859556, -1.0200004434928365, 2.4494486298013327, 4.912454789901065, -3.1282875583789487, 1.6798738109457212, 1.9572218559089334, -2.575803381251641, 1.435696012741487, -0.01635952411616422, -0.28287051735030627, -0.8820077157728798, -2.109119951446318, -3.088369749082421, 2.1879896307408226, 2.87923534351556, -0.1385715897226339, 3.4970934655815133, 3.5434856864196913, 0.42952924368753803, -2.036612599824437, -0.6380831930329595, -1.0084876255787463, 0.9305882386305143, 0.4472774074165119, 4.218997205274867, 4.079022967072262, -1.4837024405095955, -0.24023694759002293, -2.093803093435724, 2.158528657104271} 
{2.1453302630706155, 2.7010989564765366, 0.8618233705150528, -3.9282983785982926, -1.8254146784728822, 0.3475645307108385, -2.5729125012667815, -2.069181781499646, -0.18971612040726674, 0.5613798567697169, 1.1372514567887357, 0.35978112919335625, 0.5004277579431957, 1.463826814195734, -1.5824994047671093, -3.9274349253665606, -3.168879453027992, 3.6468185663920836, -3.969699425492173, 0.2440062081150093, 1.4836781423527807, 0.16618060630545062, 1.9905485971252015, -0.6059093650633125, 2.313359811995507, -0.8752743891789625, 2.9523008893413194, -0.5416257406160675, -2.95006030675878, 1.82581828043042, -1.9829084392175362, 0.3448354363340249} 
{-1.8783597799711813, 3.737113537862622, -3.4178773110097245, 3.741436049484608, 2.0665865702225505, -2.036260480172743, -0.8435964629606391, 0.22087413449061027, -3.504795727403072, 1.0961881407887308, 3.7478011587268605, -2.3791468671360505, 3.6465135865811344, -1.006403533013926, 3.021650616236211, 2.6038984116686743, -0.8998087891502795, 0.6294011113658528, -2.447466464358053, -0.18992376496344465, 1.3489975187155725, 3.9152806136649767, 1.9093096215428054, -3.3650973332853624, -2.8271120355797374, 0.6890409186317571, 1.6454951775115483, 2.349118783379309, 3.4398495676537335, 3.664411394724386, 4.480068018256493, -3.3760578695598324} 
{1.070402630654029, -2.1108385171884643, 3.5999939954978744, 3.992105654247542, 1.4879132383039222, -0.01768200129394831, -3.5775289867106563, -0.27809380912134485, -3.893223931257459, 3.1226637860564557, 0.8903567177479488, -4.190752435503712, 0.38142098790178997, 1.8191011090254803, 0.7429045285416048, -2.2541920395483674, -3.647054453912412, -0.5033421461845361, 1.8421521242809384, 3.237750735744819, 0.5308160964463876, -0.7137234552043397, -1.840367052740556, -2.740401163305752, 0.6587818658812568, 2.6674580968668016, 0.6281122095495758, -0.1103036418934886, 3.9058871401655204, -3.374930838571737, -1.6973921480081386, 3.4121177748518514} 
{-2.3261653199683767, 0.552847026928845, 1.2463988188201482, -3.9937501730663705, 0.06753014807177929, -0.6324262724391783, -0.021061372202375025, -1.9388346424887604, -0.8355866206446394, 0.6678212369214032, -0.4237560464563478, 4.097541884986059, 1.195578892863188, -4.100625873835638, -0.3312990076964088, 2.988753132928751, -1.4594103654288821, -0.08761156463598038, 2.8586711743985633, -5.000693736768471, 4.4451882625862, -1.300438017802204, 2.062513574412171, 0.7945470047039666, -0.402171980590638, -1.2912751673570666, -0.3879134460805838, 1.5248727556136636, -0.3316685647133074, 0.10392307677668351, -0.5341306912203251, 0.9029915716278384} 
{0.7185127002413615, -1.997197024880169, -2.064284114613199, 3.3352735303864227, 0.7575850065072267, -0.5132787037088079, 0.8121106323483301, 2.488257144673885, 4.405438105092365, 3.304706749454459, -2.660724813033148, 2.201399500772218, -4.026495371151023, -3.5213455683059744, -2.852321211602061, 3.556470741372053, -1.9162889933761282, 3.4816247369984628, -0.4705935833819043, -0.37177747250141774, -1.9017771130920709, -2.907973294509411, 5.718717782205509, 2.3624103038336774, -3.468135762020272, -3.3650645482960866, -0.880741387667547, 0.26631438186988904, -2.2722121739921857, 2.009882308463947, 4.602132421466041, -1.74759233171666} 
{-1.9340153502623378, 1.19361759621099, -1.1911441461960224, -0.461812611052046, -2.838492731412943, -2.4750305665784573, 2.1632210830880303, -0.9796550297433122, -3.141684385825027, 1.5680403337721516, -0.6416905434672703, -2.3744951074990004, 1.726424575410406, -0.9762543428875152, -3.8743470174854373, 3.9783110755006845, -4.074292141446745, -3.3914195378416867, 1.1436789302419257, 0.6000466050204063, -1.4893029205967174, 3.040190539435026, -2.6395163039677305, -0.7869827923434806, 2.77284863536701, 3.517207460157823, 0.050119053380705936, 1.2798481182970745, 2.495695891017303, -2.344275901401938, 1.365978754223515, -2.692604894567245} 
{2.854933471242935, 2.7894067418637762, -1.849452145141032, -1.7238653164828663, -3.005929808671571, -0.16643544755002415, -0.13444827249826255, 4.618096438428811, -0.3257800605215073, -4.756686787358214, 3.7889203476080127, 5.318476264533055, 0.882977294725459, 3.0069524249764057, 0.4794737239793675, -0.7445036462290732, 2.8352801858305345, -0.3910041654313276, 0.8604091523219424, -3.4330201683975643, -2.1752584360488725, 1.3744815815256672, 2.2795989529577656, 2.9266156478041707, 2.903038539331808, 2.911765968590227, -0.9362105886014342, -1.7111528442570998, 1.0252646904916842, -2.465059607474242, -0.8137812518965976, -0.07200962375774048} 
{0.36685773414583595, 3.3267014596456588, 2.5193493726329392, -1.349961647195193, -0.13714079103759494, 2.5259582837674475, -2.651501090115046, 3.1229976534460957, 3.0309549039204247, -2.417432045273393, -3.066608582283701, -0.5664590260645234, -4.848210578442021, -0.02239335032647555, 1.8399156978016487, 3.767295311413999, -2.1782965753867267, -2.3861033547297668, 2.7456335994638335, -2.423612420902896, 3.6298891947589165, 0.15009633864759628, 1.1584382243302747, -0.2138180719323842, 1.280230378238194, -2.561367020530182, -1.352722952515024, -2.619179899609167, -3.9974397977088096, -0.18535379341074737, -0.050484246733760674, -3.9578459603923317} 
{1.7684543101082852, -0.23783266657196012, -0.22298276937306002, 2.4586752969026024, -0.076663095585424, -1.1426393081127928, -0.1311660502917441, 4.103025235472273, -1.3901400432701747, 3.8750185146014777, -1.0320816668817352, -2.8940770610390305, 1.4267748595829972, -0.6179104962839359, 1.821389528725459, 0.5174710249955559, 2.0371835947611054, 3.9343175998237143, -2.633212159340955, -4.021446174236079, -2.518867461708839, -1.033888598127072, 3.314301190634058, 2.6662626222652412, 2.3773894034877787, -1.4920216091578198, 2.3268042995909326, -2.2654369716273934, -1.312783432518676, -1.3316108324123077, 4.188638144915554, -4.1188128652991205}}  


Weight 2 after training:
Rows: 32, Columns: 16
{{-0.5510672304738384, 3.797017957574025, 1.3587050094978386, 1.1419722351577606, 3.130996838072762, 1.0802633004523015, -0.2962478510018921, -2.4274898589350884, -2.7637312238343905, 3.650239213524147, 1.507566735079346, -0.7293642828544761, -3.7411179400762267, 0.1424455118197013, -2.5819585228744986, -1.1732436982796743}, 
                    {2.210334299945234, 1.5701074779287287, -3.1175019466303495, 1.7826696133447455, 0.5546921994534901, -1.7485985242731652, 0.03934860723518567, 4.074711997723486, 0.6920835796032317, -2.221930182849303, 0.8353489818646525, 1.2817765470162559, -0.8581257022911584, -1.5904592051477147, -0.17693105087208733, 0.2113054306928701}, 
                    {-0.9899826227050424, 1.9825506222396663, 2.083343609369872, -4.57567935411998, 1.5510023036917844, -1.9664640322529698, 0.11657569353083892, 2.8633070597099324, 2.2926947208360526, -1.2072285387752655, 0.8729507685993944, 4.253221774187427, 3.9201465074961246, 0.890716463901104, 3.263926190829311, -2.7831007045425196},
                    {4.653060072717783, -0.939658542556531, -1.9355316516521084, -3.096375238150997, -3.017682559171218, 0.9097309493979094, 0.6576829558987236, 2.44738089787779, -1.3680333116015788, -3.4244294185093023, -3.3474781452410003, 3.380786466044569, -2.0081718083479485, -3.558778912286041, -1.5158445801143448, 0.5544778111404945},
                    {0.6007924372056618, 2.2121621977657853, -2.190727266559304, 2.646072719802803, -1.5298904459591904, 3.219295513461324, -0.08738837510014637, 2.917552191253182, 3.593437558778965, 2.6089908875232304, -0.3855717993057086, 1.5629055576236366, -0.7675933019158281, -3.7302868528149786, -1.2843539371953765, 1.690965898912724},
                    {2.703630723426256, 1.8083635722549762, 1.7503807869158459, -3.228428606896137, -1.7242457727122376, 1.6684613185488875, -1.1831461291665735, 1.6628318738077277, 1.8803162093718124, -0.6594036281344172, -3.3482936862786086, -2.088797234375989, -3.617220527779308, 2.521075973289668, -1.0442089969731128, 3.465605340693331},
                    {-4.148014329524113, 1.1107223926745013, -3.035697021731257, -1.2742286202637207, -2.3123686443829867, 3.0459791818691024, 0.9366069653395467, -0.9945305017904591, 0.9573060140721671, 2.8510090156592236, -1.7344301495454433, 0.8361163876612528, 0.5949448531333804, -1.9582940493753782, -0.7949476336790694, -1.0137641585892752}, 
                    {2.320829718811671, -0.8102759520695443, -1.7718906445506004, -1.4156548557548405, -2.5448467238701764, -2.745547253951138, 0.5123024221848289, 0.3418956448952053, 1.391543719252104, 2.760816539753232, 3.8887448683640686, 2.670608816091815, -3.4088703574837247, 3.296578551231812, 1.2876341708827244, -1.3763077191507853},
                    {-1.5269983617870786, -3.7428836952413658, -2.498917708783724, -4.23693654846762, -2.4514932333371897, -3.4028912994530804, -5.330272237292493, -0.31326657436443694, 1.608161142278653, -3.092693783477802, 0.9609007335993645, -1.2628555997275053, -2.912698520538394, 1.1743366559678137, 3.147561437448344, -2.845455389434998}, 
                    {-0.679687403331426, -1.5779965835793173, -3.631460085496509, 2.513241123683744, -3.48675410295445, 3.1686038478620957, -1.531112758837666, -3.5413709894899714, 1.0457809757094725, 2.2293476431187993, -0.5908054315030427, 0.8582492298336589, -3.2849048193391712, 2.5667692563581723, 0.6491402251066585, -2.930984186520409},
                    {-3.1754238520265914, -0.8721288760613141, -1.0079664239790784, 3.9850077368724928, 1.0325434157359794, 3.572017213388133, -3.519988922539472, 0.09436192547854398, -2.282287626525691, -3.455513583785915, -1.3075381619755275, 0.08499714026781764, -2.726628036810583, 1.1798305070214297, 0.7298320245882214, -3.954306259867019}, 
                    {0.36215298492043524, 2.7003932151961996, -2.988117394327519, -1.0449796074651547, 2.264382081877715, -0.30518241733571044, 1.1839498727489304, 3.1965660949847257, 0.1867751342971493, 1.1714711804922628, 0.49410123166926695, -1.9130866058000129, -3.515756812914098, -0.025763445035978737, -2.435560431373451, -1.4194530266392988}, 
                    {-0.9843389446522507, 1.7145234814988457, -0.8945778332967098, -2.4519788097387, -2.2595167317869347, 3.093199215717209, 2.9046491665631935, -0.9653841730446407, 1.9383183321379895, -4.281251389309789, -1.8857652464688033, -0.30387852600195114, -0.010327839621422284, -3.4234802460257274, -0.5960987884469046, -0.1950432811078117}, 
                    {2.068989503695722, 1.1202332069467256, -1.2613503363392502, -3.622255527909425, 1.5288253471476962, -2.585459522628016, 1.8699197759098847, 1.7706566587414585, 2.1634658013515033, 3.954951134005702, -1.6128601698043725, 1.4847821995897583, -3.021516075825851, -2.777771859228273, -0.6731144711944911, 1.290153767199145},
                    {2.9732525323039694, -3.1184944924214513, 0.9665312248362871, -3.9071972570490634, -3.903315404592069, -1.25143632319029, 0.0539131629172939, -3.5320151820007304, -3.0538222416274174, -1.5094516022348714, -0.8799982258783171, -0.48544891296982234, -0.9771500119870146, -2.2702098211450865, 2.237504636258503, -0.6816813965871173}, 
                    {-0.5775521257073334, -1.0544852094729926, 3.7648214759387733, 2.8273155167729818, 0.2151552581828228, -0.030927291662564513, -0.42556375174673167, -3.0077397800619825, 0.8651613053631245, 1.199192371672869, -1.8696988142934583, -2.7061374055148524, 2.4635545944492696, 1.7231716096815282, 1.6443704377530337, -3.0101344330768907}, 
                    {-2.7018792337420985, 0.8905481917436339, 1.4522777631459307, 1.2844988350623852, 2.559669341404591, 1.440437077394283, 0.27097053242464186, -3.373603967193564, -1.01523625395536, 2.549506728747016, 3.258012443365813, 1.178273989193372, -1.9201773149605994, -1.9710087491644166, -1.749909394283023, -3.3066732952564983},
                    {-0.5837363757659546, 2.770861039726926, -0.07102041886940243, -1.8375758862508451, -3.111425074353722, -0.7140536336587904, 2.9612332536782007, -1.826686069632765, 1.2693457933000079, -1.5713974984005035, -0.4284355551321022, 1.069605155269403, 0.23851520332324186, 3.884331543283397, 2.1592115919699837, 0.716074927636872}, 
                    {-0.27988660694718154, -3.303957962697777, 3.539238002651462, 1.5971197251659606, -2.185374152697384, -0.7023686501016381, 3.1252951683226753, -0.8802519689328786, 3.390191243984015, -0.2656685734421222, 3.604669535801298, -1.737886542409346, 3.4679121148184224, -2.2129499745690593, 2.1142408427123023, -0.19703908502479905}, 
                    {3.040672734685604, -2.9171302910332253, 0.9063335154837548, 1.7143337823207705, 0.31753527034254203, -2.381111325951747, 0.9237168676504234, 0.9835914121320377, 1.9658775580422332, 0.47528415171163985, 4.219683979361199, -2.553385022515901, -1.6472687074592407, 2.5545684348881195, 0.7029141912320568, 2.1945654988976244},
                    {1.2723658388589003, 3.3194420889545335, 2.3226158705386415, 3.6713642907790085, 1.1888256117951168, -2.353782417903438, 4.787747822273442, 0.02891394298025239, -3.8483257324781963, -0.2442981634351185, 1.2603218987713998, -2.9704963430554745, 2.9092877427331696, -0.7200417378535611, -2.4193183472715343, 2.6338180695332363}, 
                    {3.0257901317469913, -2.753838068803166, 0.637575014373441, 3.326092195962399, -3.476003748095859, 3.326100698678841, -1.4752630024725613, 2.895229101922493, 3.7080421334205282, 0.6344950775301804, 0.11172671241262674, 1.849990132992272, 1.3466388231827433, -2.003259498543332, 2.3588362956281133, -0.5957998444098679},
                    {3.2552210425481256, 1.2217205992719806, -0.0429341602143928, -3.134506336406526, -3.037565245515452, 1.8919370304936904, -0.15283090938415075, 0.6289597335064443, -0.5755991787310857, -2.4020849500857926, 1.058172305009607, 1.0343372088516076, 2.2914270020244234, -0.004195462744489367, 0.48842518626806086, -0.13353081141938114}, 
                    {3.421431257617919, 2.8466154706763214, 3.1408295426872606, -0.16682066258744507, 2.398104028789678, 4.476927717067451, 1.0939892600549157, 1.1507807120000775, 3.955332326608292, -3.7049695376104066, 1.8471500039221653, 0.23415195982128073, -3.7800077889587507, -0.11210485663042916, -2.4252039652554536, 1.8441761300351192},
                    {2.166357034925101, 2.665374399619055, -2.3535258834137345, -0.5749603517370013, 0.9122831799940314, -1.4150197640316766, 2.6013342892146887, 2.4004786962161506, -0.9136049584916145, -4.0952343751514535, 2.9316910614937632, 2.596126708714776, 0.56526886432696, 0.5312584649768296, 3.302376012503889, 3.3231096904116217},
                    {-1.3791709554706295, 0.7746476500360401, 2.286299845412245, 0.7512556449012325, -3.3237703149508304, -0.0219704174436696, 2.6474648078707212, 3.3570946046116297, 1.3934119089129997, 3.0616823857310456, -1.776924541295386, -1.6452985617249363, -3.9820041616214294, 2.762158227273382, 0.8162608671617817, -3.76837209316136}, 
                    {-3.5824339643345064, -3.901459382081131, 2.619014362645297, -2.606428138230201, 1.8853996159357131, -2.122570335605566, -1.6487925833881427, 1.63523982085082, 2.2840715469089528, 0.899689455106413, 1.9723325642611103, 0.006112101677426827, -1.6223762188626667, 0.43054293441619, 3.960907070586206, -3.571500411033652},
                    {0.768747090028192, -1.8311198860484863, -3.0297688129152838, 1.310256655081781, 1.5912664983175564, 1.783686293902991, 2.1502098189830168, 1.5784065176901612, 2.4933641332590564, -3.30206101325048, -2.609253899748945, -3.0189644031948717, -2.2896605582952567, -1.453054288135729, 2.4917265297753604, 1.8466364295743163}, 
                    {3.789802761814492, 4.016693836943632, -2.2371171995655876, 0.8906658678714093, -1.1738945690240072, 0.06834406774777356, -1.3129247611677513, 1.022828123863017, 0.9446925116092446, -3.668930490228425, 2.621723498287259, -0.6192856551238923, 0.9775267566528221, 0.3561206589960556, 2.5268785538593237, 2.7211785005433384}, 
                    {2.9022876215898923, 3.5798726974079553, -2.6628218981887732, 4.145221214245681, -2.9846099145966862, 1.0163003047868373, -0.07726520274526416, 3.3062626316122152, -1.962665352528558, 2.979561308453701, -0.855483582099776, 0.23593920460463774, -1.9770763336973292, 2.8845868084490514, 3.550446836432212, 0.0778585661060265}, 
                    {0.4986837314091759, -2.2417620625016, 3.288122945217707, -1.4774962706975352, -1.5912115646649094, -2.470497925159222, 1.8525403379241971, -2.52558248522064, 1.340115982149591, -2.3356263162668913, -3.246478280337746, 1.2202953346756864, -1.0134166659927828, 2.4124064432796706, -0.13897743591776618, -3.730229450045594},
                    {-2.1235184318876605, 3.735393949557457, 3.639704041121282, 1.4982825474092112, 0.8734668387546529, 2.2384252333346963, 0.9442254710489786, 0.30187944203225203, -2.328239822682147, 1.0891685669628, 1.3515175940318152, 2.796364626117701, 3.152436245360364, 1.1649696129489546, -3.813853520330299, 1.834005978599568}};

Weight 3 after training:
Rows: 16, Columns: 26
{{0.21903745279550385, -0.18481415331213566, -3.239555251449791, 0.7468904064203147, -2.8002547746161794, 0.3285709785637894, -2.5382810092642694, -5.512936494204075, -0.8383545932492105, -0.808768417409559, 0.6677234196157703, 1.8721735191957514, -1.0261215500833625, 0.6985841714985443, 1.8549552014089958, -1.7375098827051785, -4.9096278276158305, -0.5316286874409694, 1.4260330794563838, -0.36239668987338947, -3.4836009388929443, -0.8457570794370535, 0.697185561129381, 0.8750504302026283, -0.004183230412116568, -3.704539181669557} 
{1.552025129401995, -1.2902337675026272, -0.005834245881864307, -0.9207421600649413, 3.7612763993524116, -4.254011776305626, -0.036660009835659965, -1.1868962362992173, -2.0417170962181954, 0.25102290152731094, 0.2820688189420831, -2.8419393634169454, -2.0105131815028945, -1.3636979742134727, 1.0353793806402956, 0.9165618636986023, 1.5409864240126172, 0.4834752738624476, -0.5415746604409764, -0.2845599701753831, 0.0460515411507142, -0.8465224672280431, -7.809092829727415, -0.8642149456134653, 0.46158506619019357, -1.7580119084799561} 
{-3.7127206937493926, 4.260805310465301, 3.323646877935732, 2.6906219572553822, 2.7586522877650106, 0.19433782126638405, -0.4146916105807017, 5.182570223846749, -3.3809623271097338, -0.7254514547606831, 0.0910977137582025, -1.3631372753257356, 0.33706578083299554, -2.5116138900848024, -0.16240184666939708, -3.7974292142991546, 1.6752585933218296, 0.9530644438132747, 0.3380392337285909, 1.9483578309466403, -2.750509070846445, 2.674626512192252, -2.674772266456517, -3.3140083098970017, -0.09547111154760532, -2.7829220640914443} 
{-3.9141551244583024, 0.6568267051880186, -0.10349021657264657, -5.731039441631521, 1.9095181935870253, 3.567813830016363, 0.5287661294522858, -2.8718642820981994, -3.4815462990481114, 1.2529334096158158, -2.3856886252908134, -2.749360117844172, -1.8666541224126005, -1.4641255144962249, 1.0834662572863942, -1.145656748100296, 1.520748940204792, -2.5839487758211614, 0.659015030195603, -2.2322762888322187, 3.9653231904211563, -1.2452100818080691, 1.8433805360018456, 1.2086007773741403, -4.237811274095772, 0.6402506244582885} 
{-2.450553672574802, -1.2790080906584211, 4.082029131061456, -3.3653395136746904, 0.7185509766926281, 3.015184635895009, 2.899464445902918, -2.674916556916151, 2.573809401586423, -3.0611592703158275, -2.1542503546901086, -3.2584045019834047, -0.937343900863318, -4.209830839726129, -3.246640273741848, -1.8188332905016857, -0.12534168741175022, -4.313785424164007, -2.4855123441720837, 0.15444818272287722, -0.46135985854537276, 1.1279460006640143, 1.3533185933211873, -5.674645126221341, -3.1459295816181325, -3.020665571304122} 
{-0.3578680631219635, 0.13888265579995857, -2.126875003261901, 0.5860217112626239, -0.6773501495593807, -0.32447714570780917, 0.970672384633349, 3.235564680012642, 1.8671514713203445, 1.5301143210274377, -2.8168842282467397, -0.43672393986875013, 0.11480947313708244, 0.16999097773086072, -0.5111143943572968, -3.427806981187409, -5.961919103156248, -0.2127753841835916, 0.04349945386404225, 0.07962200602494814, 1.791755972336842, -2.5180504472004785, 0.39549506671781065, -3.7732475613963974, -4.141893085372885, 0.7847724895420132} 
{-2.8345848025374596, -6.500477200059192, 1.8153686778467193, -1.5456413699757012, -3.4070837744246547, 0.7272296241659987, 2.3772643591562894, 1.861033120770448, -2.256637421056482, -0.7742590448683511, -4.214132174520598, -1.1560222621203333, -2.6208512751435893, 1.6360058837844382, 1.2954202779904598, -2.887198863719956, -0.36088447307537647, 0.815014265527542, -6.541313567730463, -0.22444588107799252, -2.4794774158977626, -3.2923808984960483, -0.24216612381534453, 1.278161503855652, 0.5639893832004469, -0.719755164303188} 
{0.4732078028650941, -1.9351084944647912, -0.07620057438248024, -1.1418936511544608, -2.4049372025911606, -1.2148349488650363, -0.9191744965468819, -0.6198732107616118, -0.6833814764817765, -7.64065439898088, 2.4454321846352114, -1.3125370201481217, 1.8104352442052258, 1.1011591484335932, 0.5341471400506703, -2.9648969976698782, -5.7720108729609505, 0.7496812826230215, -1.4312578900561483, -0.3161167949560299, -1.1397733155453202, 2.1187915322928066, -0.30752958893303856, 0.24393946913602743, 0.3479105240801065, -2.0496075937993488} 
{3.0774768440753197, -3.0537590521613933, -3.3145239034607994, -0.6650442767475016, -2.5012875515324087, -1.2713642195596315, 3.577809564403569, -1.0817027869046996, -3.9993794375469855, 3.3717735539562246, 1.551362678017904, 0.6523083433675297, -3.0144253912945027, -1.0537393322827218, -3.4305457661229126, -3.6768452742440156, 2.1241871729340254, -1.1318909759802593, 2.09193723037337, -3.7002384894329645, 2.2224437991809856, -1.5324307352170872, -0.09849977232683992, 2.0637285880550196, 1.1840667710046098, -2.6148665682123524} 
{-2.1690383097418104, -3.6363239355732815, -0.1737484749357195, 0.4455129944349835, 2.5151998926219274, 2.219337725585638, 2.4572638503791793, -1.8660619221298218, -4.132344927867187, 2.826552864261514, 2.290348398638448, 1.577716192602197, 1.6420887716191508, -0.8401436233013071, 3.6514616168242635, 3.780130092170793, -3.669335928191249, 0.3155195067725061, 3.370550180674054, 1.330168038018953, 0.7469691193287562, 1.34627164478789, -4.134281894523802, -0.4674583811865518, -0.2453823969055927, -1.2523525638416373} 
{0.6803471839762912, -1.903696023145434, -3.9670909970632686, 0.5629175918788686, -3.4183054921326796, 0.35377907698984606, -5.206243453411275, -2.5336427681139857, 0.6994337968122273, -1.4239918711066, -2.232682057473021, -1.5276003729769516, -3.6440726545469477, 1.1997137934082336, -2.4668400409872513, -0.2633359510811279, 0.36673340733123644, -0.6229633640622325, -5.023258092494479, -1.0863568971631987, -0.5123953098254351, 0.95447273789483, -2.2310906809165942, -1.2557474752429187, -5.264632494364639, -3.017125043815394} 
{-3.0745301313251647, 2.994273048281041, 1.1892632932406315, -0.35645379819175643, 1.1641211459290333, -2.257707545391106, -2.4468665341411637, 1.593256071590766, -2.9862876347529843, -2.256019795581235, -2.7059085412877275, 3.292406572057299, -0.5276241002459519, 1.9218078441995712, 1.7534915984123924, 3.889675707614684, -2.93813460131348, -5.547797986851311, 1.7255334793233494, 2.329668990478458, 0.6707743740335398, -0.8184613919872721, 2.4501616693514, -0.5521386007999134, 1.7751921921558858, -3.2501170955638803} 
{2.4434848559042033, 2.295656499754953, -0.17766160049089513, -2.7202617719918853, -2.4789138649806777, 2.9144915373204983, -2.163097982783879, 1.3744807013856333, 1.1460985521101748, 3.834731072272918, 2.8309321446577163, 0.2925725518158719, -2.9298814530326114, 0.24175035277483325, -3.381486227712933, -1.855940970878322, 1.5237102087034808, 1.6485761842776363, -3.047913003381293, -3.0104471426626764, -1.774475121489588, -3.2686010171062048, -0.45575024349315374, 3.2409852478736285, 0.23438403760765508, -1.3525429064130219} 
{-0.4548139453262561, 3.071467742014058, -1.1454838657858395, 1.3212227127192229, -2.712959032068044, -3.0952684439081377, 0.425289797872437, -0.6296692367945292, -1.0013651921669693, 0.5634389492444701, 2.733685132557688, 2.631269855045971, -0.9470649496330019, -5.396736634717369, -7.281529781296204, -2.566873600475848, 1.500972293905031, 1.6281705462606153, -0.5446308180687314, -0.21959086937668898, -3.5563530543051094, -1.7278609629863715, 0.7621192911145176, -0.02873312027222644, 0.9083414765729166, 2.3345151706343277} 
{-0.9331831013006865, -1.7982781465437039, 1.2182674809257226, -1.8351896194023527, 1.3350306854627736, -0.03984149004308579, -3.742089163954508, -2.466779115265751, 2.53511295318649, 0.4852487929804248, -3.2046524832372936, -2.688641621063389, 1.341298889232377, -2.459676890029382, -0.7580178451483671, -1.7935305983823386, 2.499017036706921, 2.5512015615893207, -0.5119275202066075, -1.024553887064013, -2.5888821820158623, -3.0566236172758843, 0.2955523444371136, -0.2231602869849334, 2.0445297209914837, -2.5241589128541286} 
{-3.094447019003739, -1.524899063989942, 0.3585447603701304, -2.780633321094306, -2.6816092407947583, 3.439381898852125, -0.2526482438546571, -2.4021541689292865, 1.8770031292195068, -3.2762417045200856, 2.1443828852551485, 0.3297258449435998, -0.19176380633410675, 0.11298813984797487, -1.4732340335735372, -3.7350080260688276, 3.741039017790469, -0.3380498274278269, 3.679958187035942, 0.22292140989001363, -2.3571734007521026, -0.9679522677699877, -1.8605194477377758, -2.102409692773539, 2.1259275805960085, 1.0471033917516959}} 
